digraph Tree {
node [shape=box] ;
0 [label="displ <= 190.5\nmse = 60.7627\nsamples = 392\nvalue = 23.4459"] ;
1 [label="hp <= 70.5\nmse = 35.0716\nsamples = 222\nvalue = 28.6423"] ;
0 -> 1 [labeldistance=2.5, labelangle=45, headlabel="True"] ;
2 [label="yr <= 77.5\nmse = 25.4053\nsamples = 71\nvalue = 33.6662"] ;
1 -> 2 ;
3 [label="mse = 10.0089\nsamples = 28\nvalue = 29.75"] ;
2 -> 3 ;
4 [label="mse = 18.9414\nsamples = 43\nvalue = 36.2163"] ;
2 -> 4 ;
5 [label="yr <= 78.5\nmse = 22.1693\nsamples = 151\nvalue = 26.2801"] ;
1 -> 5 ;
6 [label="weight <= 2305.0\nmse = 13.001\nsamples = 94\nvalue = 24.1202"] ;
5 -> 6 ;
7 [label="mse = 9.2864\nsamples = 39\nvalue = 26.7077"] ;
6 -> 7 ;
8 [label="hp <= 95.5\nmse = 7.5212\nsamples = 55\nvalue = 22.2855"] ;
6 -> 8 ;
9 [label="mse = 5.5953\nsamples = 30\nvalue = 23.4"] ;
8 -> 9 ;
10 [label="mse = 6.5529\nsamples = 25\nvalue = 20.948"] ;
8 -> 10 ;
11 [label="weight <= 2590.0\nmse = 16.9077\nsamples = 57\nvalue = 29.8421"] ;
5 -> 11 ;
12 [label="mse = 13.7142\nsamples = 25\nvalue = 32.832"] ;
11 -> 12 ;
13 [label="mse = 6.9625\nsamples = 32\nvalue = 27.5062"] ;
11 -> 13 ;
14 [label="hp <= 127.0\nmse = 13.0011\nsamples = 170\nvalue = 16.66"] ;
0 -> 14 [labeldistance=2.5, labelangle=-45, headlabel="False"] ;
15 [label="yr <= 75.5\nmse = 10.0264\nsamples = 74\nvalue = 19.4378"] ;
14 -> 15 ;
16 [label="mse = 3.9722\nsamples = 36\nvalue = 18.1667"] ;
15 -> 16 ;
17 [label="mse = 12.7809\nsamples = 38\nvalue = 20.6421"] ;
15 -> 17 ;
18 [label="yr <= 75.5\nmse = 4.7611\nsamples = 96\nvalue = 14.5187"] ;
14 -> 18 ;
19 [label="weight <= 4358.5\nmse = 3.077\nsamples = 68\nvalue = 13.7353"] ;
18 -> 19 ;
20 [label="mse = 2.0388\nsamples = 38\nvalue = 14.5263"] ;
19 -> 20 ;
21 [label="mse = 2.5956\nsamples = 30\nvalue = 12.7333"] ;
19 -> 21 ;
22 [label="mse = 3.7403\nsamples = 28\nvalue = 16.4214"] ;
18 -> 22 ;
}